5 100
</s> 0.004003 0.004419 -0.003830 -0.003278 0.001367 0.003021 0.000941 0.000211 -0.003604 0.002218 -0.004356 0.001250 -0.000751 -0.000957 -0.003316 -0.001882 0.002579 0.003025 0.002969 0.001597 0.001545 -0.003803 -0.004096 0.004970 0.003801 0.003090 -0.000604 0.004016 -0.000495 0.000735 -0.000149 -0.002983 0.001312 -0.001337 -0.003825 0.004754 0.004379 -0.001095 -0.000226 0.000509 -0.003638 -0.004007 0.004555 0.000063 -0.002582 -0.003042 -0.003076 0.001697 0.000201 0.001331 -0.004214 -0.003808 -0.000130 0.001144 0.002550 -0.003170 0.004080 0.000927 0.001120 -0.000608 0.002986 -0.002288 -0.002097 0.002158 -0.000753 0.001031 0.001805 -0.004089 -0.001983 0.002914 0.004232 0.003932 -0.003047 -0.002108 -0.000909 0.002001 -0.003788 0.002998 0.002788 -0.001599 -0.001552 -0.002238 0.004229 0.003912 -0.001180 0.004215 0.004820 0.001815 0.004983 -0.003111 -0.001532 -0.002107 -0.002907 0.002815 0.001579 0.000425 -0.002194 0.001524 0.003059 0.000194 
the 0.077042 -0.138293 0.045446 0.001055 -0.089710 0.181990 0.101172 0.066146 -0.200110 0.024411 0.053316 -0.100746 0.067894 -0.353971 0.046050 0.033300 0.003054 -0.155418 0.110737 0.011296 0.020123 0.279934 0.038962 -0.151841 0.036768 -0.277104 -0.011198 -0.172451 0.123047 0.271442 -0.087715 0.026864 0.076209 0.006892 -0.036814 0.089730 0.098025 -0.148235 0.120976 0.068970 0.147955 0.546389 0.162051 -0.137083 -0.004736 -0.154369 -0.151037 0.290957 0.042798 -0.244775 0.159182 0.059657 0.135837 0.164855 0.034198 -0.091813 0.053724 -0.105167 0.047380 0.065965 -0.044620 -0.112460 0.114897 -0.086483 0.149818 -0.043314 -0.069482 0.149364 0.192194 0.134079 -0.192011 -0.000587 0.198898 -0.187188 -0.037097 0.175912 0.041179 0.262760 -0.325258 -0.219962 -0.014027 -0.039674 -0.100410 -0.288510 -0.160982 -0.013996 -0.063683 0.001405 0.115892 0.035598 0.089947 0.161088 0.008904 0.196551 -0.005271 0.182030 0.351794 -0.040849 -0.057491 -0.044190 
, 0.077455 -0.196322 -0.036069 -0.026043 -0.158763 0.053327 0.019297 0.143617 -0.156141 0.084816 0.019941 -0.160743 -0.059133 -0.402165 0.001192 0.102956 -0.021410 -0.170519 0.008561 0.031805 0.126731 0.297231 0.128542 -0.112791 0.016404 -0.206207 0.024157 -0.194891 0.113864 0.138478 -0.072805 0.019309 0.067138 -0.143032 0.035766 0.034438 0.140247 -0.191054 0.088150 0.055363 0.159631 0.417165 0.099673 -0.113577 0.065911 -0.108146 -0.228481 0.175283 -0.001273 -0.201018 0.134629 0.053110 0.205841 -0.032148 0.016786 -0.165278 -0.095398 -0.066546 0.079525 -0.026597 -0.037063 -0.082102 0.179031 0.019675 0.230429 -0.015253 -0.011120 0.048003 0.085355 -0.000605 -0.175314 -0.012078 0.299583 -0.312387 -0.108845 0.199946 -0.010395 0.154020 -0.192276 -0.245312 -0.055772 0.053173 -0.002597 -0.237603 -0.194559 -0.046728 -0.103736 -0.021732 0.140730 0.018171 0.163897 0.222785 0.131449 0.051243 0.017040 0.112021 0.403378 -0.005451 -0.021463 -0.061124 
. 0.108090 -0.207100 -0.018723 -0.000027 -0.143570 0.145373 0.029603 0.077317 -0.178363 0.082440 0.071032 -0.166768 0.011333 -0.385068 0.000148 0.027768 -0.018895 -0.155077 0.085695 0.049099 0.093713 0.368156 0.069329 -0.169389 0.035446 -0.193580 -0.043904 -0.177774 0.094002 0.168418 -0.065432 0.061706 0.035788 -0.145479 0.009631 0.039110 0.066568 -0.114819 0.031209 0.014852 0.132018 0.409228 0.107820 -0.135898 -0.024305 -0.086305 -0.192091 0.207970 0.024977 -0.115340 0.116343 0.004849 0.124808 -0.073477 0.028492 -0.114757 -0.019596 -0.064318 0.023489 0.037320 -0.029074 -0.166101 0.168198 0.010149 0.171508 0.030304 0.016761 0.078898 0.152286 0.058841 -0.153986 -0.033912 0.299112 -0.239002 -0.030988 0.160422 0.022200 0.130153 -0.176018 -0.266337 -0.026351 0.014924 0.030552 -0.235869 -0.127066 0.024335 -0.072779 -0.034913 0.167394 -0.013558 0.132768 0.212636 0.092899 0.168739 -0.012479 0.211284 0.431452 0.007467 -0.015292 -0.183583 
and 0.096765 -0.117544 0.010411 0.008122 -0.158561 0.101489 -0.036567 0.159171 -0.185713 0.053192 0.078850 -0.087785 -0.040766 -0.401215 0.055338 0.121923 0.002226 -0.117618 0.029013 0.052321 0.146687 0.352548 0.122828 -0.141786 -0.040956 -0.113829 0.027655 -0.092015 0.026678 0.178461 0.022489 0.071472 0.042388 -0.140871 -0.035649 0.071547 0.106661 -0.174679 0.073442 0.031319 0.119975 0.428211 0.034435 -0.112793 0.031240 -0.114168 -0.279904 0.111868 0.075634 -0.214464 0.126178 0.059390 0.247386 -0.013892 0.004938 -0.181131 -0.075349 -0.140864 0.123088 -0.032139 -0.032157 -0.096853 0.157548 0.009847 0.224420 -0.023516 -0.002391 0.101843 0.145159 0.097959 -0.177600 -0.052561 0.284075 -0.340263 -0.017249 0.281539 0.030003 0.229197 -0.166888 -0.201636 0.006273 -0.020425 0.006650 -0.205125 -0.082953 0.070206 -0.100758 0.022693 0.081659 -0.088900 0.216658 0.197868 0.144117 0.040804 0.027979 0.169299 0.423719 -0.023898 -0.097896 -0.073204 